<?xml version="1.0"?>
<opencv_storage>
<cascade>
  <stageType>BOOST</stageType>
  <featureType>HAAR</featureType>
  <height>35</height>
  <width>35</width>
  <stageParams>
    <boostType>GAB</boostType>
    <minHitRate>9.9900001287460327e-001</minHitRate>
    <maxFalseAlarm>2.5000000000000000e-001</maxFalseAlarm>
    <weightTrimRate>9.9900001287460327e-001</weightTrimRate>
    <maxDepth>1</maxDepth>
    <maxWeakCount>100</maxWeakCount></stageParams>
  <featureParams>
    <maxCatCount>0</maxCatCount>
    <featSize>1</featSize>
    <mode>ALL</mode></featureParams>
  <stageNum>10</stageNum>
  <stages>
    <!-- stage 0 -->
    <_>
      <maxWeakCount>2</maxWeakCount>
      <stageThreshold>5.2748974412679672e-002</stageThreshold>
      <weakClassifiers>
        <_>
          <internalNodes>
            0 -1 10 -8.8120503351092339e-003</internalNodes>
          <leafValues>
            9.9374020099639893e-001 -8.8679248094558716e-001</leafValues></_>
        <_>
          <internalNodes>
            0 -1 9 9.9596213549375534e-003</internalNodes>
          <leafValues>
            -9.4099122285842896e-001 9.8649263381958008e-001</leafValues></_></weakClassifiers></_>
    <!-- stage 1 -->
    <_>
      <maxWeakCount>2</maxWeakCount>
      <stageThreshold>1.4745892025530338e-002</stageThreshold>
      <weakClassifiers>
        <_>
          <internalNodes>
            0 -1 18 -8.2198649644851685e-002</internalNodes>
          <leafValues>
            9.9065423011779785e-001 -9.5999997854232788e-001</leafValues></_>
        <_>
          <internalNodes>
            0 -1 17 -1.6004472970962524e-002</internalNodes>
          <leafValues>
            9.7474586963653564e-001 -9.6924638748168945e-001</leafValues></_></weakClassifiers></_>
    <!-- stage 2 -->
    <_>
      <maxWeakCount>2</maxWeakCount>
      <stageThreshold>9.2476718127727509e-002</stageThreshold>
      <weakClassifiers>
        <_>
          <internalNodes>
            0 -1 8 1.5208302997052670e-002</internalNodes>
          <leafValues>
            -8.7755101919174194e-001 9.8133748769760132e-001</leafValues></_>
        <_>
          <internalNodes>
            0 -1 3 -1.3281647115945816e-002</internalNodes>
          <leafValues>
            9.7002774477005005e-001 -1.</leafValues></_></weakClassifiers></_>
    <!-- stage 3 -->
    <_>
      <maxWeakCount>2</maxWeakCount>
      <stageThreshold>3.4397110342979431e-002</stageThreshold>
      <weakClassifiers>
        <_>
          <internalNodes>
            0 -1 11 1.5154080465435982e-002</internalNodes>
          <leafValues>
            -9.5918369293212891e-001 9.8755830526351929e-001</leafValues></_>
        <_>
          <internalNodes>
            0 -1 22 -9.1235078871250153e-003</internalNodes>
          <leafValues>
            9.9358075857162476e-001 -8.3163720369338989e-001</leafValues></_></weakClassifiers></_>
    <!-- stage 4 -->
    <_>
      <maxWeakCount>3</maxWeakCount>
      <stageThreshold>9.9286758899688721e-001</stageThreshold>
      <weakClassifiers>
        <_>
          <internalNodes>
            0 -1 15 9.1253984719514847e-003</internalNodes>
          <leafValues>
            -8.6046510934829712e-001 9.6302002668380737e-001</leafValues></_>
        <_>
          <internalNodes>
            0 -1 7 4.6796118840575218e-004</internalNodes>
          <leafValues>
            9.4077730178833008e-001 -9.6320939064025879e-001</leafValues></_>
        <_>
          <internalNodes>
            0 -1 24 -1.3801956549286842e-002</internalNodes>
          <leafValues>
            9.9305689334869385e-001 -6.7637002468109131e-001</leafValues></_></weakClassifiers></_>
    <!-- stage 5 -->
    <_>
      <maxWeakCount>3</maxWeakCount>
      <stageThreshold>9.8842054605484009e-001</stageThreshold>
      <weakClassifiers>
        <_>
          <internalNodes>
            0 -1 19 1.9717050599865615e-004</internalNodes>
          <leafValues>
            9.5419847965240479e-001 -1.</leafValues></_>
        <_>
          <internalNodes>
            0 -1 6 4.8889745958149433e-003</internalNodes>
          <leafValues>
            -9.2011696100234985e-001 9.4996243715286255e-001</leafValues></_>
        <_>
          <internalNodes>
            0 -1 1 -7.0160245522856712e-003</internalNodes>
          <leafValues>
            9.5433902740478516e-001 -8.7097668647766113e-001</leafValues></_></weakClassifiers></_>
    <!-- stage 6 -->
    <_>
      <maxWeakCount>3</maxWeakCount>
      <stageThreshold>9.3610197305679321e-001</stageThreshold>
      <weakClassifiers>
        <_>
          <internalNodes>
            0 -1 26 -2.1470963954925537e-002</internalNodes>
          <leafValues>
            9.5107030868530273e-001 -8.9473682641983032e-001</leafValues></_>
        <_>
          <internalNodes>
            0 -1 13 3.0963313765823841e-003</internalNodes>
          <leafValues>
            -8.1088662147521973e-001 9.3680495023727417e-001</leafValues></_>
        <_>
          <internalNodes>
            0 -1 21 3.3017084933817387e-003</internalNodes>
          <leafValues>
            -8.0323565006256104e-001 8.9403384923934937e-001</leafValues></_></weakClassifiers></_>
    <!-- stage 7 -->
    <_>
      <maxWeakCount>1</maxWeakCount>
      <stageThreshold>9.6319019794464111e-001</stageThreshold>
      <weakClassifiers>
        <_>
          <internalNodes>
            0 -1 12 3.8456167094409466e-003</internalNodes>
          <leafValues>
            9.6319019794464111e-001 -1.</leafValues></_></weakClassifiers></_>
    <!-- stage 8 -->
    <_>
      <maxWeakCount>4</maxWeakCount>
      <stageThreshold>7.2659924626350403e-002</stageThreshold>
      <weakClassifiers>
        <_>
          <internalNodes>
            0 -1 16 -5.0951101002283394e-005</internalNodes>
          <leafValues>
            -9.4117647409439087e-001 9.4224923849105835e-001</leafValues></_>
        <_>
          <internalNodes>
            0 -1 4 5.1367620471864939e-005</internalNodes>
          <leafValues>
            8.4935528039932251e-001 -8.5986763238906860e-001</leafValues></_>
        <_>
          <internalNodes>
            0 -1 25 -2.8517763130366802e-003</internalNodes>
          <leafValues>
            7.7344107627868652e-001 -8.8826692104339600e-001</leafValues></_>
        <_>
          <internalNodes>
            0 -1 20 1.5817943494766951e-003</internalNodes>
          <leafValues>
            7.7472048997879028e-001 -7.8316277265548706e-001</leafValues></_></weakClassifiers></_>
    <!-- stage 9 -->
    <_>
      <maxWeakCount>5</maxWeakCount>
      <stageThreshold>8.7649852037429810e-001</stageThreshold>
      <weakClassifiers>
        <_>
          <internalNodes>
            0 -1 2 -9.5407027401961386e-005</internalNodes>
          <leafValues>
            -8.4615385532379150e-001 9.5099538564682007e-001</leafValues></_>
        <_>
          <internalNodes>
            0 -1 14 1.4696296304464340e-002</internalNodes>
          <leafValues>
            -8.9282739162445068e-001 8.8063710927963257e-001</leafValues></_>
        <_>
          <internalNodes>
            0 -1 23 -8.0644879490137100e-003</internalNodes>
          <leafValues>
            9.0408396720886230e-001 -6.2732708454132080e-001</leafValues></_>
        <_>
          <internalNodes>
            0 -1 0 2.4723393842577934e-002</internalNodes>
          <leafValues>
            -8.1115430593490601e-001 8.0481231212615967e-001</leafValues></_>
        <_>
          <internalNodes>
            0 -1 5 4.4830739498138428e-002</internalNodes>
          <leafValues>
            -8.4807395935058594e-001 7.4908554553985596e-001</leafValues></_></weakClassifiers></_></stages>
  <features>
    <_>
      <rects>
        <_>
          0 24 24 8 -1.</_>
        <_>
          6 24 12 8 2.</_></rects>
      <tilted>0</tilted></_>
    <_>
      <rects>
        <_>
          1 12 23 6 -1.</_>
        <_>
          1 15 23 3 2.</_></rects>
      <tilted>0</tilted></_>
    <_>
      <rects>
        <_>
          3 6 4 12 -1.</_>
        <_>
          3 10 4 4 3.</_></rects>
      <tilted>0</tilted></_>
    <_>
      <rects>
        <_>
          3 15 12 12 -1.</_>
        <_>
          9 15 6 12 2.</_></rects>
      <tilted>0</tilted></_>
    <_>
      <rects>
        <_>
          5 27 4 1 -1.</_>
        <_>
          6 27 2 1 2.</_></rects>
      <tilted>0</tilted></_>
    <_>
      <rects>
        <_>
          7 0 10 15 -1.</_>
        <_>
          7 5 10 5 3.</_></rects>
      <tilted>0</tilted></_>
    <_>
      <rects>
        <_>
          8 25 25 4 -1.</_>
        <_>
          8 27 25 2 2.</_></rects>
      <tilted>0</tilted></_>
    <_>
      <rects>
        <_>
          9 22 2 5 -1.</_>
        <_>
          9 22 1 5 2.</_></rects>
      <tilted>1</tilted></_>
    <_>
      <rects>
        <_>
          11 0 6 15 -1.</_>
        <_>
          11 5 6 5 3.</_></rects>
      <tilted>0</tilted></_>
    <_>
      <rects>
        <_>
          11 1 8 11 -1.</_>
        <_>
          13 3 4 11 2.</_></rects>
      <tilted>1</tilted></_>
    <_>
      <rects>
        <_>
          11 6 1 24 -1.</_>
        <_>
          11 14 1 8 3.</_></rects>
      <tilted>0</tilted></_>
    <_>
      <rects>
        <_>
          11 13 18 7 -1.</_>
        <_>
          17 13 6 7 3.</_></rects>
      <tilted>0</tilted></_>
    <_>
      <rects>
        <_>
          12 6 22 20 -1.</_>
        <_>
          12 16 22 10 2.</_></rects>
      <tilted>0</tilted></_>
    <_>
      <rects>
        <_>
          12 26 21 4 -1.</_>
        <_>
          12 28 21 2 2.</_></rects>
      <tilted>0</tilted></_>
    <_>
      <rects>
        <_>
          14 0 16 9 -1.</_>
        <_>
          11 3 16 3 3.</_></rects>
      <tilted>1</tilted></_>
    <_>
      <rects>
        <_>
          14 5 8 3 -1.</_>
        <_>
          14 5 4 3 2.</_></rects>
      <tilted>1</tilted></_>
    <_>
      <rects>
        <_>
          14 7 1 2 -1.</_>
        <_>
          14 7 1 1 2.</_></rects>
      <tilted>1</tilted></_>
    <_>
      <rects>
        <_>
          14 22 12 10 -1.</_>
        <_>
          20 22 6 10 2.</_></rects>
      <tilted>0</tilted></_>
    <_>
      <rects>
        <_>
          15 6 14 28 -1.</_>
        <_>
          22 6 7 28 2.</_></rects>
      <tilted>0</tilted></_>
    <_>
      <rects>
        <_>
          15 14 4 8 -1.</_>
        <_>
          15 14 2 8 2.</_></rects>
      <tilted>1</tilted></_>
    <_>
      <rects>
        <_>
          16 18 8 6 -1.</_>
        <_>
          18 20 4 6 2.</_></rects>
      <tilted>1</tilted></_>
    <_>
      <rects>
        <_>
          22 13 8 4 -1.</_>
        <_>
          24 15 4 4 2.</_></rects>
      <tilted>1</tilted></_>
    <_>
      <rects>
        <_>
          24 8 7 6 -1.</_>
        <_>
          24 8 7 3 2.</_></rects>
      <tilted>1</tilted></_>
    <_>
      <rects>
        <_>
          24 11 4 18 -1.</_>
        <_>
          26 11 2 18 2.</_></rects>
      <tilted>0</tilted></_>
    <_>
      <rects>
        <_>
          25 13 9 13 -1.</_>
        <_>
          28 13 3 13 3.</_></rects>
      <tilted>0</tilted></_>
    <_>
      <rects>
        <_>
          26 11 6 14 -1.</_>
        <_>
          28 11 2 14 3.</_></rects>
      <tilted>0</tilted></_>
    <_>
      <rects>
        <_>
          29 6 2 22 -1.</_>
        <_>
          29 6 2 11 2.</_></rects>
      <tilted>1</tilted></_></features></cascade>
</opencv_storage>
